{
    "layer_0_weights": [
        [
            0.8643176162628415,
            0.23821202755726043,
            0.38108323578114794,
            1.0114513917629988,
            0.8355928754448134,
            -0.48970545762286416,
            0.44068700177654874,
            -0.1088938214989418,
            -0.03414376889502256,
            0.12629602023356984,
            -0.013891900482735203,
            0.7343485585591103,
            0.2910483000974165,
            0.14341407659489358,
            0.18906084753678778,
            0.19580851327768636
        ],
        [
            0.671187947365418,
            0.08975264629665532,
            0.09322054261574457,
            -0.1852046667972485,
            -1.1883140668192715,
            0.3220798451847592,
            0.43817395829032413,
            -0.36986917954178955,
            1.024842060070701,
            -0.8876727432686096,
            -0.38760217408100006,
            0.13676146566580025,
            0.6725336790124555,
            0.6445882656258959,
            0.02972093512827996,
            0.29081441849612144
        ],
        [
            -0.3267338983881429,
            -0.8298774294049138,
            -0.20172835234497102,
            0.08452605529743627,
            0.5522854649752539,
            0.4893103461994073,
            -0.15750048360337698,
            -0.1753758246183908,
            -0.4586364205030992,
            -0.6951316841589502,
            -0.853819273885797,
            0.9551232251051441,
            -0.2680866196964986,
            -0.11752119601536161,
            -0.5729032742895617,
            0.39425745285655805
        ],
        [
            -0.6510817340070009,
            -0.04167494344639611,
            -0.454005799492503,
            0.1986510234891972,
            -0.24071640916801035,
            -0.5830525033486963,
            0.005029527747413251,
            0.1481231797691405,
            0.03405429541771598,
            0.07967651133966078,
            -0.36226254051392415,
            -0.05454954747348685,
            -0.33899846176705023,
            -0.08421237277312871,
            -0.36614946760462186,
            -0.7137450897025611
        ],
        [
            0.10887962091851486,
            -0.05348465576467823,
            -0.863230647776971,
            0.20977181671779174,
            -0.36351326126494665,
            -0.10497365110287155,
            0.44536222193824004,
            0.05074841707224732,
            0.5483481311584418,
            -0.6127253300054313,
            0.12902978193540388,
            -0.1384048999771417,
            -0.49811791286707,
            -0.2900282996504912,
            -0.1919263778292817,
            0.12066422526188442
        ],
        [
            -0.5412372917085635,
            0.38631194995186463,
            0.3008678248816501,
            -0.6538804628605273,
            0.7084586162342964,
            0.8913912199710309,
            0.5513469406390171,
            -0.07701775610531894,
            -0.46787420884335573,
            0.45272284526513956,
            -0.2697406006481293,
            0.5228030857762278,
            0.1589532784151811,
            0.37283862737755413,
            0.10035446117035807,
            0.3185425140572364
        ],
        [
            0.07833251433110294,
            0.8381558005865034,
            0.02910732195006809,
            0.25552210213349097,
            0.824455068634593,
            -0.7037539301010262,
            -0.4768991056282691,
            0.4432845786159177,
            -0.4944564318362987,
            0.8182495184963868,
            -0.4210195428293868,
            -0.07703950750514098,
            0.8244333502850056,
            0.6335017947337184,
            0.7984747159543452,
            0.47092769561519177
        ],
        [
            -0.2967507738562053,
            0.9081343126509099,
            -0.20901523586843984,
            0.4056492413039752,
            0.431965138722942,
            -0.17631352641533046,
            0.326160284744182,
            0.42225416836437296,
            0.1654345137045915,
            -0.5436604092551732,
            -0.05473787941138414,
            0.7639796421438396,
            -0.34803013788287396,
            -0.049364745236550094,
            -0.22806255027810587,
            0.8670159423112721
        ],
        [
            0.2510957004695251,
            0.2746575614164266,
            -0.2567001553894678,
            0.29166995870853285,
            -0.34192631203794505,
            0.042851434959033166,
            -0.20078066510787565,
            0.2552101242628215,
            0.32547901657257683,
            -0.15502949927727389,
            0.20547685702543597,
            -0.4536514349782497,
            -0.7013771864237239,
            0.16836981553707273,
            0.031255975763494204,
            0.4011066780813269
        ],
        [
            0.9998573954336066,
            0.23625750868225703,
            -0.3444146765776251,
            0.516622269101056,
            -0.5521990396811792,
            -0.1536391384264071,
            -0.027539355209982373,
            0.8887559318164951,
            -0.3234962183597152,
            -0.23318444708905492,
            -0.014578395072279841,
            -0.405416560081615,
            0.6230440575621383,
            -0.6357439926129803,
            -0.525641568950864,
            -0.2743354942193561
        ]
    ],
    "layer_0_bias": [
        -0.09252231805642777,
        0.08810449845727436,
        0.026386194262878294,
        -0.04802590554307662,
        0.04274654149049043,
        0.0006625397948271856,
        0.08766480352327985,
        0.08625257894179394,
        0.16174236302062867,
        0.023535574390461337,
        -0.004353812954752806,
        0.04698009803989399,
        -0.11352040569307834,
        0.1530035664285562,
        -0.08970306945789333,
        0.018527298686375735
    ],
    "layer_1_weights": [
        [
            -0.1850186236081596,
            0.6954017656269179,
            0.3360593698832964,
            0.16344801334645476,
            -0.4670143611559713,
            0.3042179177500864,
            -0.3446368674170394,
            -0.3319785945298452,
            0.43234877043365055,
            0.09282453192138436,
            0.22643782260502265,
            0.0682247525056539,
            0.33929477861133417,
            -0.17230754637556997,
            -0.3656600634097203,
            0.1567394485294935
        ],
        [
            -0.30072420232247243,
            -0.22770024466831013,
            -0.16506866671892836,
            0.21039936238762036,
            -0.10256974342118529,
            -0.4859763905248997,
            -0.23064490207104557,
            -0.6910585077726538,
            0.22579828524425674,
            -0.5512955882887449,
            -0.4060769187705426,
            0.04405716969500658,
            -0.14985862488062932,
            0.644680089913199,
            -0.4541847008785463,
            0.049050910081515825
        ],
        [
            -0.04135133476364626,
            -0.4004573771175035,
            0.18748268501739918,
            -0.07344300100590151,
            0.274839701958025,
            0.31097724988920533,
            0.8020435187659373,
            0.5644801555084453,
            -0.0994206568457434,
            -0.05938403993922693,
            0.39840959717232416,
            0.21602008670998796,
            0.22408391785694723,
            -0.6031232413457458,
            -0.011294509996434776,
            -0.2759197382471953
        ],
        [
            0.0854068357687788,
            -0.004605624935777891,
            0.3216745220983643,
            0.1696812809185931,
            0.27908532160675936,
            -0.1641129479171739,
            -0.33302466940160347,
            -0.09261344742957398,
            -0.012253045719570229,
            0.15597457877911128,
            0.8006032666815617,
            -0.0012908188045407773,
            -0.3289091137565982,
            -0.07110373697262432,
            -0.16544062195746626,
            0.1629316354128571
        ],
        [
            -0.5447713879651815,
            0.11061456496792221,
            0.054143424010614574,
            -0.059254107481421014,
            -0.22469244438548655,
            -0.06981826534675234,
            -0.49775164302460767,
            -0.07821099702004528,
            -0.16301854187557163,
            0.25318447082933343,
            -0.3957879522660412,
            0.21553585422954333,
            0.6340690681030261,
            -0.7538592179453396,
            0.15055205509962544,
            0.19946617583653217
        ],
        [
            -0.2448922230482842,
            -0.1402041636907097,
            -0.044960827441351714,
            -0.17331279826260185,
            -0.17673545967256823,
            -0.591487607312017,
            0.43978567751342273,
            0.6122845878290878,
            -0.28419095921740317,
            -0.5100676690420739,
            0.08664055940909875,
            -0.29304937058635655,
            0.09171575442288746,
            -0.1303201068656453,
            0.24765991380414476,
            0.20627741878908687
        ],
        [
            -0.26790220553320904,
            -0.47978671940215045,
            -0.5597385545452785,
            0.24336828002952607,
            -0.41710524401314925,
            -0.1791866404704229,
            -0.2260807522546666,
            -0.008904169320242216,
            -0.7059065413785794,
            0.10659476597669111,
            0.16541595055816016,
            0.0830588474729498,
            -0.07474347133141253,
            0.09220016963126508,
            0.14472625933133318,
            -0.9905360401123667
        ],
        [
            0.651225333003098,
            0.15859142043841146,
            -0.23410039154001525,
            -0.10676323015652912,
            0.16875605477424205,
            -0.03873818925657921,
            -0.7176270948379784,
            0.9318064467481127,
            -0.020684869691630175,
            0.3924286464391281,
            -0.2835044896030317,
            0.4481251310334224,
            0.23522141924720047,
            0.2739363347355816,
            -0.36699934807390583,
            0.3418769415154939
        ],
        [
            0.20988337765348822,
            0.4729942182659929,
            -0.21413962637580963,
            -0.12186694830823888,
            0.8070309998973404,
            -0.37442338833723054,
            -0.0703687557002649,
            0.35951512170829153,
            -0.003300090989766845,
            0.20864994225771394,
            -0.14390403289263717,
            0.27445400808706194,
            -0.48066088607057955,
            0.6082848852818347,
            -0.04164641733325108,
            -0.2999828630063009
        ],
        [
            0.25084771082263907,
            -0.1334496316893532,
            -0.4724867772964307,
            -0.5940023476350311,
            0.2365926369025622,
            -0.031447331268397875,
            -0.016372131557198938,
            0.6251273633451432,
            -0.35164134465991326,
            -0.2500816289906895,
            -0.16568607305398067,
            -0.08230012545308935,
            0.08621481539634572,
            -0.14467961599319612,
            -0.02391650502330016,
            -0.11928151908800154
        ],
        [
            -0.2884683700236391,
            -0.29169532969674566,
            0.10011100720283872,
            -0.3233225146251141,
            -0.4082570806527768,
            -0.08788039353970473,
            -0.02732782100726409,
            1.0888205471491645,
            -0.25001563674931415,
            0.2928525290358832,
            0.18554123977066217,
            -0.4390910869327588,
            0.2962204832914267,
            -0.4205245779601559,
            -0.937835882313874,
            0.02881724486513003
        ],
        [
            -0.6217053815229239,
            0.2078759299797897,
            -0.2420676972338167,
            0.7463247213059763,
            0.42292853239870154,
            -0.1586334880689361,
            -0.24801202933019867,
            -0.4772764138549977,
            -0.14676877545647676,
            -0.03022962529824772,
            -0.07706291264042495,
            0.16792305303228872,
            0.1731849046146494,
            0.19137582954069393,
            -0.27302943594128576,
            -0.5036443632446856
        ],
        [
            0.5403187158884991,
            -0.24027234527887495,
            -0.22951891396003063,
            -0.2132353318393417,
            -0.6559460364537678,
            -0.16640243740267566,
            -0.1609189717109049,
            0.466619320515573,
            0.32662194863771377,
            0.01635503214607462,
            0.2821730321874757,
            0.010449581466877501,
            0.1236521443224425,
            0.04033319942177851,
            -0.06816666694204304,
            -0.17759330550216285
        ],
        [
            -0.11605187118432177,
            -0.389689232726187,
            0.0995431847070492,
            -0.15900864679870252,
            0.33997879284536386,
            -0.0892801641313274,
            0.030933591916835552,
            0.1903967382365079,
            0.21627459444962746,
            -0.5615675301127013,
            -0.08342811148476342,
            0.4142989306095364,
            -0.6300525452570904,
            0.18547635305513263,
            -0.7975395370634683,
            -0.36909294975093165
        ],
        [
            0.02639980600300961,
            -0.5863859808176749,
            -0.3483834668941978,
            -0.4726671301763001,
            0.6170945176009416,
            0.05977744035184637,
            0.20122252402327317,
            -0.07935428137014797,
            -0.10892022260802653,
            -0.5734334646446387,
            -0.1038844744844828,
            -0.24015949024067962,
            0.3196793943910876,
            0.40701542818099595,
            0.5185528006103807,
            0.2810461544464535
        ],
        [
            -0.2566204252627201,
            -0.3862176504724714,
            0.27072586152320766,
            0.4426775999542243,
            -0.5554803463650125,
            0.12568179311873498,
            0.28133507438442285,
            -0.058059477805897736,
            -0.11132296850051569,
            -0.28849571108922994,
            -0.5115410943281916,
            0.4858476472738294,
            -0.129658147508235,
            0.04613082232663158,
            0.617319749024858,
            0.2391597785607699
        ]
    ],
    "layer_1_bias": [
        -0.06837383406606913,
        0.05705764285973584,
        6.82237672493786e-05,
        0.016854220703253018,
        0.08509514411999568,
        0.025331765920182003,
        0.003612276718566104,
        0.024791204072526985,
        -0.03212064826951747,
        0.07242947481225456,
        -0.022582719863580528,
        0.16244887247136303,
        0.06194303741823416,
        0.08094115715878536,
        0.006230952224117168,
        -0.1616271389141142
    ],
    "layer_2_weights": [
        [
            0.13261978309706812,
            0.04816837054225784,
            0.5325716412059951,
            0.5885239239486386,
            0.4184022025783899,
            0.19905258549210286,
            -0.7405851981077369,
            0.03858184314527128,
            -0.04590815870229311,
            0.03337997512938264,
            0.3262161537919203,
            -1.0007467010702034,
            -0.2005871403546024,
            0.15953494116134662,
            -0.19274113132748816,
            -0.45274905731609494
        ],
        [
            0.3205210739564632,
            0.11427259458887137,
            -0.34372202107920263,
            0.10894007310445951,
            0.3274514729422703,
            0.0001197528620061311,
            0.28074268235202465,
            0.019203315979709014,
            -0.1396098348475331,
            -0.4113985113835376,
            -0.04521206445319062,
            0.08219480068417861,
            0.32561621230661003,
            -0.0458010747560067,
            0.1472450295081554,
            -0.30597388408256243
        ],
        [
            -0.27679286781292767,
            -0.03813147149885615,
            -0.3728233059145969,
            0.2889914464837565,
            0.17263432907654522,
            0.09912729863958894,
            0.11938274448144867,
            0.7128208250116815,
            -0.16576852338342263,
            -0.7783731712567524,
            0.06909631801625503,
            -0.015033516132828297,
            -0.1821466077895684,
            -0.3464806299829177,
            -0.1552933616891471,
            0.07472671372557138
        ],
        [
            -0.10059978416995699,
            0.7688881193523855,
            -0.33665196392627933,
            -0.25617311260689174,
            -0.817196468469717,
            0.16257721509882075,
            -0.7125696825428385,
            -0.19775757054007792,
            -0.09746425218054518,
            -0.2747781742062282,
            0.6791556332169553,
            0.6026819976109468,
            0.41560213703682075,
            -0.3234970004401418,
            0.7072185012586992,
            0.1083437186777666
        ],
        [
            0.31398467132610786,
            0.33090342635987613,
            -0.3210969427949028,
            -0.14110698360998447,
            0.27127839945108423,
            -0.948579547545258,
            0.5496674143717162,
            0.18708211717625264,
            -0.016158790254967633,
            0.05491124543301994,
            -0.37687780002721694,
            -0.0489601365451721,
            0.40193343379441543,
            0.3986601631924875,
            0.9993349536822831,
            -0.10609764498691354
        ],
        [
            -0.2327256201259247,
            -0.18137324287298007,
            -0.3599321567737826,
            -0.02960911101527282,
            0.1400758241975751,
            -0.016290994073561837,
            0.3874631107962826,
            -0.08436351493716963,
            -0.12284235625471238,
            -0.20606294993153212,
            -0.5779002874753424,
            -0.5539604037836976,
            -0.414087340301937,
            0.46012430735034227,
            0.3102862959136608,
            0.4943706584956093
        ],
        [
            -0.4711979198660398,
            -0.7165211238584113,
            -0.2333545351025493,
            0.04816327821101516,
            0.21699688778684642,
            0.3405538986522878,
            0.10482960391358478,
            0.6055220799450387,
            -0.07870299326460324,
            -0.3232744896107138,
            -0.594650471056961,
            -0.3230879445601288,
            0.10589228518635509,
            -0.32378812405614077,
            0.305932129794712,
            0.5627351312679298
        ],
        [
            -0.8230745012805476,
            0.348777796243837,
            -0.7926942419288989,
            0.07820744493301926,
            0.8044329794868128,
            -0.08646230016594737,
            -0.446264754072844,
            -0.24412852967614718,
            -0.09229609766989136,
            -0.06959754478602238,
            -0.13477521178311447,
            -0.12470623679976399,
            0.18363866136034873,
            -0.44328903682789095,
            -0.2289685781858449,
            0.9924960932275771
        ],
        [
            -0.1328391114759578,
            -0.15786718072897407,
            0.37965950467189924,
            -0.9122204740620365,
            0.46714874216689817,
            -0.22672162842491464,
            0.05702787583851966,
            0.02883896512840571,
            0.33360637280248884,
            -0.09739949012914491,
            -0.2447116964892642,
            0.45587156651220695,
            -0.8346670156547176,
            0.05205800783550394,
            -0.4564817390407348,
            -0.24878874445048393
        ],
        [
            0.7736983424858014,
            0.01179849617012951,
            0.068966455547938,
            -0.6329133385834675,
            -0.20121471126293988,
            0.04782473474411462,
            0.12432852485393289,
            0.20919027278062402,
            0.0030504229160051455,
            0.17430388889774182,
            0.12147662979664187,
            -0.6604995435323967,
            0.03929468411227289,
            0.26981035019597877,
            0.10510076191593724,
            -0.08259257418529398
        ],
        [
            -0.284422210591407,
            -0.3962342835223244,
            -0.04634777731600049,
            0.37897666281369163,
            -0.5867806534594081,
            -0.25484280539689985,
            -0.40360533112511776,
            0.2597455051702032,
            -0.19580970874643422,
            -0.16641766028855104,
            -0.08568868082142783,
            0.12648253427902814,
            -0.11985605475195756,
            -1.0787030522310164,
            0.10463082753044817,
            0.29139962465470065
        ],
        [
            -0.00011010138987616204,
            -0.4734405914715066,
            0.13193687127180367,
            0.15870282016351794,
            -0.03843260645466451,
            -0.03792463502799149,
            -0.32048709014676924,
            -0.08030387945498546,
            -0.5480518457913969,
            0.10680535946076432,
            -0.2950638634242551,
            0.3042852875192841,
            -0.5222351196739962,
            -0.19146843920085946,
            0.26824202766826244,
            -0.6413708828043246
        ],
        [
            0.2265004244888236,
            -0.07496686690950895,
            -0.6174200672592272,
            -0.4831968575115894,
            0.43380110738171673,
            0.25398157109003244,
            -0.048431683729404915,
            0.1149985768972148,
            0.07919564637747725,
            0.04014456530174405,
            0.3719193847880276,
            -0.541802182763806,
            0.31031751822846787,
            -0.1237834287109552,
            -0.35931280138304306,
            0.03052588299763424
        ],
        [
            -0.13963102219336782,
            -0.4433973555959924,
            0.06983293427993777,
            0.6136163474199118,
            0.0020057612859723448,
            0.010481723445112813,
            -0.23734822776507625,
            -0.042941237163062175,
            0.16499892963003035,
            -0.1348715202667063,
            -0.15083282720582614,
            0.28975894994855506,
            -0.3143081012238356,
            0.11359566364406946,
            0.5719737433632683,
            0.4076173204160303
        ],
        [
            -0.03180974966774549,
            0.48219303172130723,
            0.3657191226287442,
            -0.35222433200884157,
            -0.43392916009706606,
            -0.10605669432647787,
            0.36368586741815817,
            -0.025693332628014872,
            -0.21236451609538598,
            0.5506310631451173,
            0.10307282363537798,
            -0.8200216854636279,
            0.11083122571632172,
            0.18386212252774017,
            0.08462254725043418,
            0.15464241534337803
        ],
        [
            -0.006806841992444886,
            -0.45537424657688064,
            -0.13363128156459586,
            -0.34365378831846677,
            -0.23668208555949144,
            -0.4574367848729273,
            0.15829340236771822,
            0.027893784886148805,
            -0.15827092655126482,
            -0.23868497454338666,
            -0.041094047352526634,
            0.37007618415182764,
            -0.7019889368611872,
            0.1953909848667728,
            -0.1876195455440587,
            -0.6239730311247577
        ]
    ],
    "layer_2_bias": [
        0.13727822764060726,
        0.005254424391993613,
        0.00501913764229168,
        0.005412807204699898,
        0.1159462169576328,
        -0.0590148468468183,
        0.003933558878354904,
        -0.03409210518762272,
        0.0001995363650733755,
        -0.0104278988116298,
        -0.05334523758892027,
        0.10549505004117761,
        0.05952401444340127,
        -0.031021347476542557,
        0.09182022418925881,
        0.054174774091434584
    ],
    "layer_3_weights": [
        [
            -0.7661435268765066
        ],
        [
            -0.2469823574319425
        ],
        [
            0.062371635345891324
        ],
        [
            0.15949134432112394
        ],
        [
            -0.7929999129105474
        ],
        [
            0.34928223559131655
        ],
        [
            0.4888617140290132
        ],
        [
            0.04943776933883899
        ],
        [
            -0.2028714232466698
        ],
        [
            0.3762094386180879
        ],
        [
            0.2667464701621905
        ],
        [
            0.7525015304752865
        ],
        [
            -0.3167321331719383
        ],
        [
            -0.9791065466044923
        ],
        [
            1.1521620841065894
        ],
        [
            -0.9842263574281959
        ]
    ],
    "layer_3_bias": [
        -0.26180329703939514
    ]
}