{
    "layer_0_weights": [
        [
            0.8770185329853359,
            0.2260591632212257,
            0.3997510740696765,
            1.005398480331905,
            0.8236466142696236,
            -0.44750646038831376,
            0.4446106566053505,
            -0.1108276109619702,
            -0.07175661492885271,
            0.1482553122133563,
            0.01978691207067541,
            0.7153117760509788,
            0.2940157888814259,
            0.1173802978366125,
            0.17425423285201147,
            0.18267740981499267
        ],
        [
            0.6732043409023268,
            0.04982680467299754,
            0.06091014786354592,
            -0.16520089953227118,
            -1.197547158853472,
            0.2869660719819517,
            0.4572300704642273,
            -0.391514641435326,
            1.0048502752328043,
            -0.9441443580939488,
            -0.45969001305818236,
            0.20193803241422065,
            0.6694276446271156,
            0.6626321114086017,
            0.04940510124858778,
            0.2779425504062893
        ],
        [
            -0.3138213897192782,
            -0.8410972237954614,
            -0.18408370288689188,
            0.07806488120640336,
            0.5408754673218492,
            0.5304265501169452,
            -0.15701440444577175,
            -0.17614721718508775,
            -0.49123202630150276,
            -0.6760340416020697,
            -0.8254118306811308,
            0.9367640085976965,
            -0.2643943002927938,
            -0.13961572359773017,
            -0.585308412428362,
            0.38227490759398947
        ],
        [
            -0.6341570341371939,
            -0.04508787853588612,
            -0.44146418159988754,
            0.19691292332974647,
            -0.24389667968661985,
            -0.5631223610914369,
            0.011702069960251417,
            0.13700405408370916,
            0.000428262561325716,
            0.09236844218000848,
            -0.35632199069252374,
            -0.05898537987546462,
            -0.3339041499040246,
            -0.10790131821512526,
            -0.3832785408695364,
            -0.7209737131304474
        ],
        [
            0.09567908747449973,
            -0.055617786125911166,
            -0.8840114092840003,
            0.1913157335663803,
            -0.3607750175103166,
            -0.07315158689721718,
            0.4239235042227468,
            0.07455124538649381,
            0.6042326474918288,
            -0.6052241443446673,
            0.18882675627487516,
            -0.19468999550225363,
            -0.47812929243589514,
            -0.2741819573424594,
            -0.1554177460044869,
            0.09768515018307525
        ],
        [
            -0.5459443978927756,
            0.38908654688673033,
            0.3201305048317845,
            -0.6640548371903428,
            0.7124486767754922,
            0.9456637961591919,
            0.5118180063549966,
            -0.05069040510172022,
            -0.4245547791335526,
            0.4477958456695981,
            -0.28937534356695505,
            0.48524624004318234,
            0.1718421507769121,
            0.3977329457596182,
            0.12955582781595099,
            0.3222879914387025
        ],
        [
            0.09361507891518385,
            0.8511270289091682,
            0.0008326062537675001,
            0.2500576158607722,
            0.8444182362545338,
            -0.7331288120944289,
            -0.49100597431145265,
            0.4183652079872597,
            -0.505741631290121,
            0.7964742183981456,
            -0.45690708215730186,
            -0.06456238867713401,
            0.8065502558498214,
            0.6395127047073127,
            0.8022225989834868,
            0.47737383623817586
        ],
        [
            -0.28622535066558613,
            0.9144874299352013,
            -0.23732585672522946,
            0.38541579583110147,
            0.43830583705608267,
            -0.18078560426286555,
            0.32123501115464403,
            0.4153182569280035,
            0.1748779041493715,
            -0.545533936235901,
            -0.06310313795251361,
            0.7741188894690799,
            -0.35091580485308166,
            -0.04650284572280371,
            -0.2275423941628291,
            0.851585101785036
        ],
        [
            0.21693077715129572,
            0.27501565317134763,
            -0.22914275024605937,
            0.30378960054711285,
            -0.3098754569141661,
            0.07678903553242376,
            -0.18315292622526783,
            0.26232151658538255,
            0.34709369949367136,
            -0.1289558268318673,
            0.17042303954725696,
            -0.5211193610092082,
            -0.6833009578549019,
            0.15473797524819768,
            0.05308043137822311,
            0.4169330802832757
        ],
        [
            0.9988772661279555,
            0.27818067376600064,
            -0.32419304226317214,
            0.5043346987326254,
            -0.5242179830304493,
            -0.11395893543565441,
            -0.049123821611928326,
            0.9111702046025996,
            -0.2905372654170921,
            -0.2631037846595571,
            -0.08181580034533976,
            -0.421667853336017,
            0.680349898321024,
            -0.6035503840707572,
            -0.5215352290069971,
            -0.23641881383710536
        ]
    ],
    "layer_0_bias": [
        -0.0003602964772844619,
        2.1640442837269936e-05,
        0.00012483133611078596,
        -0.00023631628767518942,
        -1.8903084033196388e-05,
        0.0003691986227750029,
        7.931426842869761e-05,
        0.000426413421527887,
        0.00035139321011229754,
        0.0002736889109441617,
        0.00047339431229047725,
        -0.00022099591419608603,
        -0.00042970442984162474,
        0.00028691581325190814,
        -0.00015489520038160982,
        -0.00011240446262117682
    ],
    "layer_1_weights": [
        [
            -0.19850532490126221,
            0.7001822571158942,
            0.32884464501882044,
            0.14395121194494673,
            -0.4658632687873558,
            0.30571017444244725,
            -0.33403408379152355,
            -0.3057600154474316,
            0.43119748139907843,
            0.08701775454797255,
            0.2206366777268248,
            0.07084443142456137,
            0.3425967137622582,
            -0.17364085330458048,
            -0.3656600634097203,
            0.13397652799939722
        ],
        [
            -0.3251495811572196,
            -0.22975468691389828,
            -0.16461342662700001,
            0.20728138514062944,
            -0.10278478482417205,
            -0.48588034190338586,
            -0.22962042415116238,
            -0.6890908486615219,
            0.217315551853409,
            -0.5570274784104499,
            -0.4140942974222469,
            0.05180260618573978,
            -0.15130365799180712,
            0.6724747550270825,
            -0.4540386232462742,
            0.044546390269391105
        ],
        [
            -0.044357343173449984,
            -0.401882812171589,
            0.1865773526934964,
            -0.057241745051233014,
            0.2869987040724504,
            0.31395427998694564,
            0.80777946348719,
            0.5614621911681817,
            -0.10010002160344833,
            -0.08311117812655971,
            0.40920975749921384,
            0.19756016079882543,
            0.2117811932781473,
            -0.6093099907566328,
            -0.012421043689327907,
            -0.2809009872976578
        ],
        [
            0.07296874229748972,
            0.00040169988951959046,
            0.32368377531426523,
            0.15648466872865363,
            0.28379573522880475,
            -0.1639720202395298,
            -0.3323388142270502,
            -0.06471365930061643,
            -0.021897115783096128,
            0.1533287469986058,
            0.7881103445172533,
            -0.00022426404505465115,
            -0.3181232384400798,
            -0.05200344590408404,
            -0.1654190766305465,
            0.14826092306639313
        ],
        [
            -0.5497482606694216,
            0.112996940242327,
            0.059245531600166594,
            -0.0856492771580178,
            -0.19154727882630362,
            -0.0681752221879119,
            -0.4933124274921241,
            0.0037866913584500466,
            -0.15083309485181443,
            0.22154768653729262,
            -0.4115631715926621,
            0.20972514307636564,
            0.6668244278370308,
            -0.7188699950408365,
            0.1512993751577431,
            0.22785050165639326
        ],
        [
            -0.25701738779621436,
            -0.1398282445660482,
            -0.04682245228054533,
            -0.18466406910683517,
            -0.15591311916305964,
            -0.5917430193540291,
            0.4522077073658847,
            0.6626931057614439,
            -0.28194919490379844,
            -0.5177549764524919,
            0.08617040103130309,
            -0.2994539966974501,
            0.10147428187634218,
            -0.1198012760591424,
            0.24813534330883824,
            0.20814764419063453
        ],
        [
            -0.2701240672694974,
            -0.48355985020522324,
            -0.5580879563119023,
            0.2419646797586698,
            -0.39372666743544604,
            -0.1791866404704229,
            -0.21278250413685254,
            0.030661844406094076,
            -0.7052122647453745,
            0.07603157500661656,
            0.16333077078418656,
            0.07396726097331532,
            -0.0811879817283191,
            0.09628979048295205,
            0.14499941684260478,
            -0.9834897026380145
        ],
        [
            0.6224946999200871,
            0.1612913059173197,
            -0.2318192048978446,
            -0.08212770438932503,
            0.1780572358899129,
            -0.037859152939193716,
            -0.7176675209784388,
            0.9446691755350979,
            -0.03895695879860286,
            0.3758466098922061,
            -0.2960199639533253,
            0.4774930153247834,
            0.22959667389920424,
            0.31126901842343063,
            -0.3668859107176711,
            0.3342150411273216
        ],
        [
            0.20464546797060645,
            0.47122064581887274,
            -0.2225559014254716,
            -0.16453945365206962,
            0.8205435600657189,
            -0.3751243673673096,
            -0.06642726158219212,
            0.35257261374981996,
            -0.0002522207857711863,
            0.19145188625558027,
            -0.13184976032800022,
            0.23845891476790154,
            -0.4895433636996727,
            0.5917047547925767,
            -0.041765626769240304,
            -0.3193768336116129
        ],
        [
            0.23752265629220334,
            -0.13111731993476658,
            -0.47267203012126996,
            -0.6029649982607268,
            0.24783079063148086,
            -0.02895338137304285,
            -0.007476790563568427,
            0.6525708454650602,
            -0.3599710930139154,
            -0.24753019610626725,
            -0.1710702996308266,
            -0.0922929381282954,
            0.09239651675092389,
            -0.13152395793304636,
            -0.02601162050848658,
            -0.10332279547440407
        ],
        [
            -0.28161608580582764,
            -0.29247358351814734,
            0.0922023301163629,
            -0.33776993550489914,
            -0.3906462297155321,
            -0.08377232997372884,
            -0.019957352525268864,
            1.1204885758210315,
            -0.2384486926858623,
            0.2851666539644004,
            0.1727859164928704,
            -0.4648076832900992,
            0.2912310338746692,
            -0.42661713399910817,
            -0.9374488203771678,
            -0.004384263914091841
        ],
        [
            -0.6240550849225969,
            0.2056212116817318,
            -0.24556468680810345,
            0.7801048362348262,
            0.4629762226707267,
            -0.15697368493366895,
            -0.23836465112743985,
            -0.4118287560440543,
            -0.13750498929353921,
            -0.08025955905326591,
            -0.0885402537594531,
            0.18093705941513155,
            0.158689404576247,
            0.1918357424501492,
            -0.27389225704846043,
            -0.503731875759742
        ],
        [
            0.5198378723115197,
            -0.2426181795428209,
            -0.23063631637103918,
            -0.2274898168926259,
            -0.642592484011119,
            -0.16665244516373895,
            -0.15859166297191188,
            0.4699403450049907,
            0.33649435900751745,
            0.006857380889158405,
            0.28802637094167555,
            0.018452188581146164,
            0.1184270583895528,
            0.040978442488894255,
            -0.06922125032266198,
            -0.19502801032289102
        ],
        [
            -0.12515989719361048,
            -0.38970350366663115,
            0.0954197216744669,
            -0.1779906818960284,
            0.3538538781443746,
            -0.08807932091394483,
            0.04352270045848464,
            0.21949767509962595,
            0.21094537714633435,
            -0.5592816146878004,
            -0.06498066167223226,
            0.38509665606916343,
            -0.607113719365766,
            0.1965690465738824,
            -0.797571181530113,
            -0.37163612834480664
        ],
        [
            0.011657787414995492,
            -0.5851059748771918,
            -0.34932464261129403,
            -0.46526227385266833,
            0.6292523660993495,
            0.05905468380907858,
            0.1988162074238782,
            -0.09800506091910352,
            -0.12029760642679106,
            -0.5737159534702728,
            -0.09528388751583633,
            -0.24855188492352348,
            0.31057336128625646,
            0.41460222963158677,
            0.5188802846617893,
            0.27734268246991417
        ],
        [
            -0.26715042892063734,
            -0.3897205336537733,
            0.27322492894072,
            0.41120163775311425,
            -0.5623813508118932,
            0.12568179311873498,
            0.2836316454594527,
            -0.025649874725098006,
            -0.11129799437461557,
            -0.2905108362514679,
            -0.5149623866864527,
            0.45049880290936267,
            -0.11158909136955814,
            0.06554126248566942,
            0.6187792409520385,
            0.2342677878613212
        ]
    ],
    "layer_1_bias": [
        -0.00017463548008620535,
        0.00014216962289065183,
        -1.5880791245867834e-05,
        -0.00011139348577102686,
        0.0002667675472153517,
        7.433233671968536e-05,
        6.584722408879652e-05,
        0.0004592003727736403,
        -2.6276323066351324e-05,
        4.565023331043495e-05,
        -0.00013795032874713568,
        0.00010402753313890378,
        0.00017342292584309163,
        0.00016506068777580557,
        2.1031016716982933e-05,
        -0.00046207965742519605
    ],
    "layer_2_weights": [
        [
            0.13412793473762288,
            0.047837495975425484,
            0.5329548461734424,
            0.5956060555474557,
            0.40004691051519414,
            0.19846411255199148,
            -0.7406171871274843,
            0.03967782452535946,
            -0.04576638811076044,
            0.03341651552138415,
            0.32562336764137434,
            -0.985134635880339,
            -0.19783793313186196,
            0.13785264787256415,
            -0.17441132811823837,
            -0.4716692377090469
        ],
        [
            0.32411636601621185,
            0.11605937142069297,
            -0.34391615081591315,
            0.10964847607855178,
            0.3301756622540856,
            -0.00048793689338893944,
            0.2802236817033276,
            0.018086371305047807,
            -0.13948907772589128,
            -0.411562869079344,
            -0.04854822046161375,
            0.08960167534987237,
            0.32657974931651307,
            -0.043382906438115855,
            0.15176485904553697,
            -0.30949750738662535
        ],
        [
            -0.27535133295127634,
            -0.03820148681040994,
            -0.37276007164598635,
            0.2887891012210946,
            0.1735806884647546,
            0.09921466232825767,
            0.11933167850397779,
            0.712467144172779,
            -0.16576852338342263,
            -0.7784762072352311,
            0.06814904499318705,
            -0.016129857180379025,
            -0.1820255079517273,
            -0.3466244923006891,
            -0.15721770875596333,
            0.07477566961939684
        ],
        [
            -0.11721883038644737,
            0.7593683649480443,
            -0.3364027512145393,
            -0.261873049611066,
            -0.7917635138988914,
            0.17603175321529635,
            -0.7127753181971149,
            -0.19755193659191736,
            -0.09746425218054518,
            -0.27757442537481725,
            0.6957010606960179,
            0.6213433682549123,
            0.40519017679581093,
            -0.31776330984237117,
            0.7469742348602948,
            0.12698941754406423
        ],
        [
            0.31285729689695363,
            0.33505619563467237,
            -0.32129632685537246,
            -0.14082552245864824,
            0.2898548019743732,
            -0.9405595960515839,
            0.5420897757951895,
            0.18845563024076037,
            -0.016158790254967633,
            0.04946656768403131,
            -0.3685798499834854,
            -0.01576141868996827,
            0.4033718521867323,
            0.4143392137112846,
            1.0172087127370208,
            -0.10547681570677134
        ],
        [
            -0.2326827290880766,
            -0.18164550706096336,
            -0.3599321567737826,
            -0.029159697394367187,
            0.139675560776883,
            -0.016849344431113304,
            0.3874796379208254,
            -0.08442024107717744,
            -0.12284235625471238,
            -0.2060917832727688,
            -0.5778671253130507,
            -0.5542895945919548,
            -0.4140875418945047,
            0.46012430735034227,
            0.3119614976476439,
            0.4939525962844913
        ],
        [
            -0.47131976049276225,
            -0.7121667300413717,
            -0.23336514996592436,
            0.048759479197488104,
            0.223583396680101,
            0.33844979397697456,
            0.10001885800083013,
            0.6068275963948762,
            -0.07870299326460324,
            -0.32358094588330355,
            -0.5950322058591538,
            -0.3159364504541615,
            0.11030036135399086,
            -0.32013317227560406,
            0.3029383467756497,
            0.5695095701372266
        ],
        [
            -0.8087596244368765,
            0.3696631268685113,
            -0.7928849980005085,
            0.08471522798234644,
            0.8389269972295545,
            -0.08878380756687636,
            -0.4518621586779978,
            -0.240688957415043,
            -0.09197870412400326,
            -0.07682360874879335,
            -0.15170546644105157,
            -0.09291309239813177,
            0.21309439954091547,
            -0.4459550085261123,
            -0.282780276868418,
            1.0042989080641838
        ],
        [
            -0.13072135540582847,
            -0.15917804458698695,
            0.3796733548501719,
            -0.9097837482813743,
            0.47126259209820154,
            -0.22792125143433417,
            0.05684892446740651,
            0.028777584327034936,
            0.33392339760721446,
            -0.09890238278489406,
            -0.24581887064942984,
            0.4554826125977812,
            -0.8319067537361059,
            0.04274381275276917,
            -0.4559459549631657,
            -0.24933681554062587
        ],
        [
            0.7619156102145148,
            0.008884480558726263,
            0.06896177043301707,
            -0.6329150378362436,
            -0.19454916560425914,
            0.051507289482132255,
            0.12414749000870211,
            0.20881026680894565,
            0.0030504229160051455,
            0.1751224660635731,
            0.12001831522535697,
            -0.6498492090477017,
            0.03586952572222776,
            0.2714501092575099,
            0.12363711653611126,
            -0.0775079126614156
        ],
        [
            -0.282410205944127,
            -0.3957321445583051,
            -0.04634644480879796,
            0.38156057902828533,
            -0.5949879758326895,
            -0.257378423183464,
            -0.4039936551583632,
            0.2619562857300657,
            -0.19570092274826703,
            -0.16645308103821693,
            -0.08968786419296847,
            0.13443939254056975,
            -0.11362806398707714,
            -1.0797579743707209,
            0.10753397368921419,
            0.2814386032606555
        ],
        [
            0.006934020061544401,
            -0.46858743646080464,
            0.13359535712805914,
            0.15825908538956487,
            -0.0013367587013046927,
            -0.026376135280025907,
            -0.3258499823886458,
            -0.0782386020532392,
            -0.5479532295249251,
            0.10497385015358422,
            -0.29281858744060735,
            0.30021178471930954,
            -0.5172463036501054,
            -0.19626103482402943,
            0.27906550202921987,
            -0.6068716576938373
        ],
        [
            0.23289284988807726,
            -0.08562401876968892,
            -0.6179086253580487,
            -0.47842581974622805,
            0.46867693386690734,
            0.2736534146359408,
            -0.04787015627062979,
            0.11519505848361496,
            0.07928483039077232,
            0.03614455857483109,
            0.3726206084114438,
            -0.525335307610363,
            0.30194369385931563,
            -0.12605313261905912,
            -0.3158393238265702,
            0.030001901864562596
        ],
        [
            -0.1323815705504487,
            -0.43924473381273355,
            0.07121361138323765,
            0.6164410305337256,
            -0.010112865102852434,
            0.003942961947233646,
            -0.23883316093483964,
            -0.04210676991708709,
            0.16519309937068313,
            -0.1382074475430703,
            -0.15331472413012345,
            0.27800583164444553,
            -0.3144543695319092,
            0.10920012782624056,
            0.5815410216885876,
            0.4008543943791957
        ],
        [
            -0.03195486512139049,
            0.48201841708718624,
            0.3657191226287442,
            -0.3522235755432471,
            -0.4351686918871976,
            -0.10602347655446201,
            0.3639747300108075,
            -0.02563169199462473,
            -0.21236451609538598,
            0.5518980421332803,
            0.1042019144774941,
            -0.8203754828382182,
            0.11116015907759781,
            0.18386212252774017,
            0.08174640765780733,
            0.15332928063481327
        ],
        [
            0.0016355275003608332,
            -0.4568590889714805,
            -0.13147234053897094,
            -0.3369800916893226,
            -0.22421413343829427,
            -0.4506916750830623,
            0.15846954076712935,
            0.02593958639504403,
            -0.15815852128467228,
            -0.23703571581027819,
            -0.04695026269660766,
            0.36883388566076736,
            -0.7026576313836744,
            0.16862033103427396,
            -0.17421748377117444,
            -0.6261120380957157
        ]
    ],
    "layer_2_bias": [
        0.00034142005594014547,
        2.3209291677218356e-05,
        1.4075989907380237e-05,
        -8.944326157547577e-06,
        0.0005534017330779261,
        -0.00014587281651865004,
        -7.495133170290439e-06,
        -8.879821042639855e-05,
        9.278573157966926e-07,
        -4.173942363412385e-05,
        -0.00015377522712117157,
        0.00026787595566576966,
        0.00019548180778341157,
        -2.2424805371807907e-05,
        4.7647901701221075e-05,
        0.0003742255419571186
    ],
    "layer_3_weights": [
        [
            -0.7288920871910531
        ],
        [
            -0.230747761959019
        ],
        [
            0.07275222742089793
        ],
        [
            0.1720301510190842
        ],
        [
            -0.8186836938290069
        ],
        [
            0.33587940184607123
        ],
        [
            0.48932582054198304
        ],
        [
            0.04208529515017013
        ],
        [
            -0.2028673125823139
        ],
        [
            0.38147254185930335
        ],
        [
            0.30268954087441147
        ],
        [
            0.70407230804204
        ],
        [
            -0.2938248423511871
        ],
        [
            -0.9771241423509075
        ],
        [
            1.1958549361786075
        ],
        [
            -0.9866868347699932
        ]
    ],
    "layer_3_bias": [
        -0.0009185425814376589
    ]
}