{
    "layer_0_weights": [
        [
            0.8772201900760579,
            0.22640646015360413,
            0.3994273321079624,
            1.0063828935004788,
            0.8239907371959052,
            -0.44883169440743154,
            0.444114113787857,
            -0.11113537456119987,
            -0.07181700562738025,
            0.14725258510997116,
            0.01684946663563245,
            0.7160864877387465,
            0.294343486445813,
            0.11660455174185766,
            0.174614424168524,
            0.18203624380981165
        ],
        [
            0.6734686090480358,
            0.04877527770822029,
            0.06098717890176108,
            -0.1669675108507451,
            -1.1962138273647387,
            0.28677885605655323,
            0.45703326261425076,
            -0.3906306396222743,
            1.0049932228320055,
            -0.9421959869968478,
            -0.4580858182078615,
            0.20094299641027485,
            0.668330587109294,
            0.6629369395445304,
            0.04946222269077474,
            0.27747064849816083
        ],
        [
            -0.31362066015514545,
            -0.8408318887190236,
            -0.1844477025556863,
            0.07891588686049396,
            0.5412410815825718,
            0.5291620780891069,
            -0.15744180375217676,
            -0.17640233331867866,
            -0.4913119210073455,
            -0.6768751866862975,
            -0.827989798668194,
            0.9374532460152778,
            -0.2640765691964182,
            -0.14033467486316772,
            -0.5849448149090666,
            0.3815890179437833
        ],
        [
            -0.6340461451059071,
            -0.044906499669017295,
            -0.4418225210883647,
            0.19757254680684025,
            -0.24356816310327192,
            -0.5638458844239199,
            0.011233733920003491,
            0.1370221956168057,
            0.00037871557376654817,
            0.0914574068236254,
            -0.3588457332996455,
            -0.05863383061360852,
            -0.3336661449359072,
            -0.10855993471678171,
            -0.382953751630634,
            -0.721729870303858
        ],
        [
            0.09529800483938915,
            -0.05596721547320664,
            -0.8834265990744903,
            0.19076077757219467,
            -0.3617330452758562,
            -0.07257717639036733,
            0.4241788897048263,
            0.0741103906015143,
            0.6037301853371129,
            -0.6050333621186053,
            0.18808492815174013,
            -0.19451712767051232,
            -0.47705317137602055,
            -0.2739517863642593,
            -0.15589898825173185,
            0.09771256838051691
        ],
        [
            -0.5455777079892943,
            0.3888419394454995,
            0.3190127150070831,
            -0.6645810698562262,
            0.7127091558334926,
            0.9441502263037346,
            0.5120590707027631,
            -0.05099980966884412,
            -0.4250020266048841,
            0.4481457859224781,
            -0.28842996701970314,
            0.4859476527480446,
            0.1716224066683468,
            0.3979037218142951,
            0.12976965109070865,
            0.32180620608651456
        ],
        [
            0.09327472821875452,
            0.8504148308391645,
            0.0015623039057908188,
            0.24910527251696185,
            0.844895996900107,
            -0.7310461798888667,
            -0.49135296705505377,
            0.41886171353072227,
            -0.5064376586400707,
            0.7977777960020102,
            -0.4553891048220503,
            -0.06778103952529395,
            0.8078701077760343,
            0.6394220741297405,
            0.8023629513681331,
            0.47662758614999934
        ],
        [
            -0.28636864021804354,
            0.9147886222318541,
            -0.2367994377889286,
            0.38524026576148307,
            0.43838607537711577,
            -0.18066013971196232,
            0.32104955317387157,
            0.41457485633914587,
            0.17438557764537363,
            -0.5458124216473674,
            -0.0633565051613207,
            0.7729339613162073,
            -0.35049468316987525,
            -0.046907225979046646,
            -0.22740804298255804,
            0.8514960713481836
        ],
        [
            0.2171942245075931,
            0.27451418138229716,
            -0.2311362403689034,
            0.30295050704721305,
            -0.3098727865103027,
            0.0758602816893663,
            -0.18340628268708078,
            0.2624988002866305,
            0.34667222006624293,
            -0.129465459153126,
            0.16895627626316617,
            -0.5180997940476673,
            -0.6830714900535405,
            0.15526774715244773,
            0.053174773471473036,
            0.416198266963318
        ],
        [
            0.9984769275690373,
            0.27876639461766467,
            -0.32459816289550225,
            0.503031340096678,
            -0.5244274514456393,
            -0.11450508501259903,
            -0.04885547329423576,
            0.9100293464783634,
            -0.29082294904927286,
            -0.2641363781328983,
            -0.07821380817136281,
            -0.421127242482283,
            0.6794887440007924,
            -0.6024831533928247,
            -0.5214925027454455,
            -0.2363124535541087
        ]
    ],
    "layer_0_bias": [
        -0.00035998060929723255,
        2.0108857250713274e-05,
        0.00012798535086875506,
        -0.0002321029658688952,
        -1.773170126012849e-05,
        0.00036307109463818983,
        7.904001853480356e-05,
        0.0004218973874526545,
        0.0003509788469800112,
        0.0002764230243803009,
        0.0004790283135664408,
        -0.0002192665521346772,
        -0.0004247969478692366,
        0.00028387529715436676,
        -0.00015456474154238502,
        -0.00011319387774913183
    ],
    "layer_1_weights": [
        [
            -0.19820888546598522,
            0.700008533060064,
            0.32914639241612637,
            0.14311415732776586,
            -0.4656587562605281,
            0.30570815104981575,
            -0.33377644589423905,
            -0.3056474649217443,
            0.43121307701626305,
            0.08700790097848589,
            0.22092605811887006,
            0.07061796819650563,
            0.34290354373062565,
            -0.173382115040284,
            -0.3656600634097203,
            0.13363356564345302
        ],
        [
            -0.32497133105326353,
            -0.22993271561795608,
            -0.16447948310102278,
            0.20617368661415142,
            -0.10306297844579822,
            -0.4858803189698259,
            -0.22956722389474757,
            -0.6892944524616746,
            0.2174973205205281,
            -0.5569074942888845,
            -0.4140627305573356,
            0.051396221647378615,
            -0.15171682386792865,
            0.6716961222907624,
            -0.45415207998422125,
            0.04447526772783381
        ],
        [
            -0.04407769382977295,
            -0.402266489412213,
            0.1865457852393116,
            -0.05763218218345936,
            0.28630209517125466,
            0.3138835870236503,
            0.8077629040626957,
            0.5622133477945596,
            -0.10022003501434129,
            -0.08317316607706711,
            0.4087218590024014,
            0.19717525759103197,
            0.2127488108144025,
            -0.6083289836533539,
            -0.012453989557272437,
            -0.28090282342411527
        ],
        [
            0.07310617492328256,
            -2.990238617071975e-05,
            0.3235829342399437,
            0.15699740066355433,
            0.28378342711512805,
            -0.16397530845228528,
            -0.33235017250446663,
            -0.06665004665864181,
            -0.021807280883678264,
            0.15391417774327046,
            0.7880808481184005,
            -7.773190234917725e-06,
            -0.31866128151708745,
            -0.052593177965942046,
            -0.1654251758963373,
            0.14863652644658287
        ],
        [
            -0.5497508571777788,
            0.11140646137039938,
            0.058944975620237844,
            -0.08447104683933518,
            -0.19231956635311395,
            -0.06823893328280743,
            -0.49331167312995355,
            0.0009754112630332634,
            -0.15078243309941286,
            0.2221979139527875,
            -0.41176788899368316,
            0.209626057420284,
            0.6657973082117543,
            -0.7194438148896402,
            0.15110196917271038,
            0.22841516343697443
        ],
        [
            -0.25680443494444166,
            -0.1398391369073561,
            -0.04676477407337963,
            -0.18368218172824324,
            -0.15518381522743993,
            -0.5917468468155382,
            0.4518540378881949,
            0.6599537858741376,
            -0.2820362130895615,
            -0.5176071391324044,
            0.08697408771369691,
            -0.29837090305654707,
            0.10122950869848825,
            -0.11933235048781542,
            0.24806445759017104,
            0.20802655725148433
        ],
        [
            -0.2699360707197643,
            -0.4835130915598843,
            -0.5581528805911447,
            0.24295717429378214,
            -0.3937408367053444,
            -0.1791866404704229,
            -0.21265768338118798,
            0.02929641988845358,
            -0.7051441712830773,
            0.07626976187210871,
            0.16354472535412679,
            0.0743150730483291,
            -0.08157810015777003,
            0.09609025935221625,
            0.1449118955309355,
            -0.9834419040018932
        ],
        [
            0.6228364228864335,
            0.16103657102593077,
            -0.2316248789104982,
            -0.08226825892608702,
            0.17799607214682237,
            -0.03785928302418441,
            -0.717668940668123,
            0.9432552566613466,
            -0.03874123478387014,
            0.37611028530638946,
            -0.29593498602153245,
            0.47773433869013604,
            0.22883291964579555,
            0.31067501038575246,
            -0.3669577088792954,
            0.3341677939745342
        ],
        [
            0.20535192052465656,
            0.4711029746515458,
            -0.22247140006675029,
            -0.16360318662528542,
            0.820667209639765,
            -0.37511674127406464,
            -0.06582543298199318,
            0.35281742557697066,
            -9.939311264734488e-05,
            0.19131479794956607,
            -0.131871693210851,
            0.23872547968430427,
            -0.48893642865357184,
            0.5926055987187198,
            -0.041768258794769066,
            -0.31917848620828115
        ],
        [
            0.23745557759710423,
            -0.13177849606027026,
            -0.4726754354423494,
            -0.6030857322262781,
            0.24733726299150047,
            -0.029050513016025174,
            -0.007635455031138359,
            0.6525291298127315,
            -0.3600155559872223,
            -0.247749596175115,
            -0.17112156368388204,
            -0.09267103844678569,
            0.09201551200417123,
            -0.13146764336262065,
            -0.02610695522619467,
            -0.10331414591834848
        ],
        [
            -0.2815921686532275,
            -0.29249042633635425,
            0.09234106194156902,
            -0.33688295603818996,
            -0.39117090888888617,
            -0.08388151917695977,
            -0.0202233775019052,
            1.121239649526681,
            -0.2383716549122552,
            0.2850004333072734,
            0.17254884285728153,
            -0.46484055866693574,
            0.2912936465899616,
            -0.4263005101592743,
            -0.9375312726906081,
            -0.004068491314220397
        ],
        [
            -0.6239259192556298,
            0.2047507517257754,
            -0.24559756248779405,
            0.7786228369952838,
            0.4622251620370612,
            -0.15697535200442692,
            -0.2384159457230249,
            -0.4137435782068446,
            -0.13742936068445435,
            -0.0794404499065841,
            -0.0889064320869155,
            0.18022009663404434,
            0.159669521677418,
            0.1914779833549561,
            -0.27383450343435234,
            -0.5034234620520369
        ],
        [
            0.5196529538553036,
            -0.24253069713912925,
            -0.2305994469773851,
            -0.22669461232734894,
            -0.6424919562350426,
            -0.16665911734018848,
            -0.15824668746383228,
            0.4685501049709928,
            0.33630936802218464,
            0.006850729566081271,
            0.2882289245961666,
            0.019010367604193827,
            0.1176604292074076,
            0.04147833936202586,
            -0.0692681315840723,
            -0.19482504579997642
        ],
        [
            -0.12460889158284887,
            -0.38977713831212907,
            0.09542857166123624,
            -0.1784384029562155,
            0.35375478411276756,
            -0.08806061636140662,
            0.043480729078348594,
            0.21865767101888656,
            0.21091802372445198,
            -0.5592223051405857,
            -0.06488212287575602,
            0.38522634996643995,
            -0.6067778427291721,
            0.19681630392045743,
            -0.7975726616045609,
            -0.37168887620107083
        ],
        [
            0.011749944237813531,
            -0.585111187771085,
            -0.34932361055017436,
            -0.4655173193510302,
            0.6287229632700935,
            0.05906500174706874,
            0.19897558044949312,
            -0.09699716352172827,
            -0.12031621899537126,
            -0.5737192737161172,
            -0.09549894171193787,
            -0.24890951913919904,
            0.3107920709969348,
            0.4146756728911704,
            0.5188064489404598,
            0.27733687497878695
        ],
        [
            -0.26692782325015535,
            -0.38979666944952884,
            0.27314429925755274,
            0.4100918524242894,
            -0.5628574887334663,
            0.12568179311873498,
            0.2837051849829614,
            -0.025527728452043447,
            -0.11111325290712866,
            -0.29023009524665533,
            -0.5149328396434121,
            0.4496485074377714,
            -0.11142627713983218,
            0.06460568503536143,
            0.6186471381923189,
            0.23427793073384548
        ]
    ],
    "layer_1_bias": [
        -0.00017307737619447861,
        0.0001401334073514266,
        -1.5815138837989936e-05,
        -0.00010953045262108603,
        0.0002620891608812604,
        7.411130393073515e-05,
        6.700481355461672e-05,
        0.00046441779090965527,
        -2.5414052891939886e-05,
        4.620153951633673e-05,
        -0.00013956185918143183,
        0.0001006435928381504,
        0.00017479765994691894,
        0.00016482871047272392,
        2.0343232989711862e-05,
        -0.00046121729592408036
    ],
    "layer_2_weights": [
        [
            0.13412743943300118,
            0.0478910194027077,
            0.5329555029695059,
            0.5956304721965009,
            0.4000034231881432,
            0.1984819861634121,
            -0.7406171528594961,
            0.039685604768275685,
            -0.045766605645258,
            0.033416472879261215,
            0.32563110779697646,
            -0.9850101071490417,
            -0.19787054549025343,
            0.1378525609447479,
            -0.17409524680648636,
            -0.47161232597467884
        ],
        [
            0.3239474106428084,
            0.11600807875338295,
            -0.34391615516826923,
            0.10962446242266742,
            0.33012852694733463,
            -0.000489620179345094,
            0.2802245048614448,
            0.018110703126054905,
            -0.13948927320902973,
            -0.41154123930435615,
            -0.04846089144036182,
            0.08919844035779939,
            0.3264234856150291,
            -0.04334800361037647,
            0.15181607313167153,
            -0.3091887924267039
        ],
        [
            -0.27533651024211886,
            -0.03819503198223698,
            -0.3727601224075151,
            0.2887964973983706,
            0.1735347237579195,
            0.09921169310883265,
            0.11933182960121358,
            0.71246830095187,
            -0.16576852338342263,
            -0.7784770544891542,
            0.06815701135741103,
            -0.016110779160975558,
            -0.18201926152975262,
            -0.34662451503986585,
            -0.15717300736245346,
            0.07477689056700103
        ],
        [
            -0.11623229563857472,
            0.7595336178913662,
            -0.33640140189648543,
            -0.26191716032794204,
            -0.7921926651091854,
            0.1757558165199323,
            -0.7127863607431723,
            -0.1975481052109148,
            -0.09746425218054518,
            -0.27756669561270075,
            0.6954596361368156,
            0.6195669953079206,
            0.4055693061660236,
            -0.31771077353036925,
            0.7450491848178206,
            0.12703108729647786
        ],
        [
            0.31308842469861126,
            0.3349980051225639,
            -0.32129632685537246,
            -0.14085726926570344,
            0.28967664056049375,
            -0.940618876803028,
            0.5419926676574035,
            0.18851739494398242,
            -0.016158790254967633,
            0.0493251795783751,
            -0.3686433037229572,
            -0.016739025346137318,
            0.4031838524769138,
            0.4146922470711202,
            1.016592023633864,
            -0.10487519898987518
        ],
        [
            -0.23268277592350298,
            -0.18165119278505773,
            -0.3599321567737826,
            -0.029163636891770314,
            0.1397461576631031,
            -0.016843556678592553,
            0.38747970667414067,
            -0.08442388262211128,
            -0.12284235625471238,
            -0.20609154565558982,
            -0.5778668965140477,
            -0.5542895945919548,
            -0.4140621458571637,
            0.46012430735034227,
            0.31180499987186616,
            0.4940376341450929
        ],
        [
            -0.471318439271199,
            -0.7121897607702288,
            -0.23336514996592436,
            0.048830884623051275,
            0.22331547540980387,
            0.3385185565305674,
            0.0999919538976751,
            0.6068405874579609,
            -0.07870299326460324,
            -0.3235801902933605,
            -0.5950318097289978,
            -0.31570783352757087,
            0.1102008831397183,
            -0.3200830309594653,
            0.30279481086448523,
            0.569226079338612
        ],
        [
            -0.8089681263116333,
            0.3696443448001653,
            -0.792884159918868,
            0.08516935599019035,
            0.8376818489686764,
            -0.08868318339702239,
            -0.45189787237279694,
            -0.24058284220458803,
            -0.09197964883124582,
            -0.07706493954230209,
            -0.15160690080804595,
            -0.09194977038607025,
            0.21243792373468715,
            -0.44580440300726426,
            -0.28139255523112966,
            1.0040791098112694
        ],
        [
            -0.13072225465676005,
            -0.15912457913158384,
            0.3796732130304588,
            -0.9097517575911274,
            0.4712941186440893,
            -0.22790745628944814,
            0.05684930620293685,
            0.02878988476827467,
            0.3339228982595768,
            -0.09890647298880294,
            -0.2458238740879754,
            0.45550637026976765,
            -0.8319742659791369,
            0.04274655637867453,
            -0.4557919612941313,
            -0.24911550087857567
        ],
        [
            0.7616152743698138,
            0.008871545490498943,
            0.06896177151560849,
            -0.632912266980951,
            -0.19487713108964078,
            0.051569074171642255,
            0.12414789078451142,
            0.2088354219825921,
            0.0030504229160051455,
            0.17519878233027794,
            0.12020206832885835,
            -0.6499450543282022,
            0.035741606387458436,
            0.271449515996472,
            0.12432230728208638,
            -0.07745477369937964
        ],
        [
            -0.28240158788445685,
            -0.39561966621249195,
            -0.04634690371561362,
            0.3816012277692603,
            -0.5950923611714917,
            -0.2573396828377147,
            -0.40399815393044775,
            0.2619746712389543,
            -0.1957010890449698,
            -0.16645306921591896,
            -0.08968042399184066,
            0.13466687973254057,
            -0.11372434832632945,
            -1.0797396956440635,
            0.10777822609969696,
            0.281360805825691
        ],
        [
            0.007711556068453267,
            -0.46855312034432084,
            0.13359984291661364,
            0.1584643622787296,
            -0.002563919427526495,
            -0.02667917872255853,
            -0.325897482096403,
            -0.07817617913068185,
            -0.5479533566118889,
            0.10474655713336341,
            -0.29296496191415333,
            0.29909866519885503,
            -0.5173103622167802,
            -0.19607461660179162,
            0.27816127540442165,
            -0.6068075451998624
        ],
        [
            0.23292862357588154,
            -0.0858410689371067,
            -0.6179087974763869,
            -0.4782453752034758,
            0.4671145436226251,
            0.2734290937686936,
            -0.04786953636408437,
            0.11526868414070492,
            0.07928447767483902,
            0.03579036803930222,
            0.37269560749278485,
            -0.5258632694072936,
            0.3017584402033105,
            -0.12605293203755183,
            -0.3154782841290268,
            0.030370108975727592
        ],
        [
            -0.13237262686394363,
            -0.4392713247050784,
            0.07121803374556575,
            0.6164782944840012,
            -0.009871379370270382,
            0.0038160580024250127,
            -0.23886432411478287,
            -0.04207614427744011,
            0.16519274663754396,
            -0.1382127962576819,
            -0.15341341623577315,
            0.27705335434030787,
            -0.3146121864075092,
            0.10935517291836575,
            0.5801647184833645,
            0.40166313952592425
        ],
        [
            -0.03195486512139049,
            0.48201875048463144,
            0.3657191226287442,
            -0.35222357093385304,
            -0.4350990136200243,
            -0.10605247320758665,
            0.36397474407723396,
            -0.025631650885839928,
            -0.21236451609538598,
            0.5518651013274773,
            0.10417595980326823,
            -0.8203753402982554,
            0.11118532603078804,
            0.18386212252774017,
            0.08174722262314195,
            0.1534139690869201
        ],
        [
            0.0015645873450032702,
            -0.4568613526199461,
            -0.13147192783618658,
            -0.33685442276887567,
            -0.22437220435250071,
            -0.450765980163755,
            0.1584701762792849,
            0.025943980042088716,
            -0.15815856992183408,
            -0.2370844198154578,
            -0.046841785579828064,
            0.3688967885399389,
            -0.7026905540216989,
            0.16862149049447442,
            -0.17456030496736452,
            -0.6255802315331214
        ]
    ],
    "layer_2_bias": [
        0.0003424828731247351,
        2.3674573923999492e-05,
        1.4084369233926579e-05,
        -8.885877742428093e-06,
        0.0005540128353423706,
        -0.0001466767077090371,
        -7.614950891004014e-06,
        -8.862421383038059e-05,
        9.272149595663867e-07,
        -4.2815525001045156e-05,
        -0.00015417143890350513,
        0.00026499436262167743,
        0.00019546419220135207,
        -2.1948832501044386e-05,
        4.499553542416115e-05,
        0.0003786344214435568
    ],
    "layer_3_weights": [
        [
            -0.7286841649207706
        ],
        [
            -0.23107304353600008
        ],
        [
            0.07275480169554077
        ],
        [
            0.17193486075091824
        ],
        [
            -0.8169346237244041
        ],
        [
            0.3358727080379514
        ],
        [
            0.4893132180567952
        ],
        [
            0.04226526391178791
        ],
        [
            -0.2028672189668436
        ],
        [
            0.38139999434490124
        ],
        [
            0.30249081951831175
        ],
        [
            0.7017970990622967
        ],
        [
            -0.2937797846370997
        ],
        [
            -0.9771300881048747
        ],
        [
            1.1927811865284117
        ],
        [
            -0.9860557548088201
        ]
    ],
    "layer_3_bias": [
        -0.0009227203415471489
    ]
}