{
    "layer_0_weights": [
        [
            0.8627648147503459,
            0.24265316323941027,
            0.40650389769337547,
            1.0033647806307056,
            0.8214526024444929,
            -0.47263176800861584,
            0.44634047979791747,
            -0.12175691067616753,
            -0.030057382869678344,
            0.13734413921246452,
            0.016500257313950745,
            0.7052968031924369,
            0.2873613807919782,
            0.1453977249688362,
            0.18781192064210916,
            0.19409839189165848
        ],
        [
            0.6822977359331348,
            0.05658127181340057,
            0.07411008192984925,
            -0.1634506102463155,
            -1.2359684060134046,
            0.343698347663684,
            0.43389844228247854,
            -0.3523370287560145,
            0.9900635928409195,
            -0.8864863855452773,
            -0.4099330111127649,
            0.16290253780877345,
            0.6980635082959313,
            0.6268018725909182,
            0.0418284097508636,
            0.2946022860788185
        ],
        [
            -0.32964841044872645,
            -0.8250839385670645,
            -0.17738440796374896,
            0.07815290362015771,
            0.5386208059638727,
            0.5055376210807041,
            -0.1525605932126766,
            -0.18827365092110657,
            -0.45262252495719263,
            -0.6868686889683785,
            -0.8272194936597509,
            0.9305890569257468,
            -0.27139068280969497,
            -0.11472395231628119,
            -0.5729759161754603,
            0.39337273192808375
        ],
        [
            -0.6534251467848128,
            -0.03565218584573135,
            -0.4332934166679451,
            0.19406655023578145,
            -0.2537497124823129,
            -0.5717529692286148,
            0.015158333241955231,
            0.13499841785244943,
            0.0405703661565486,
            0.09725110238858155,
            -0.3365825444334137,
            -0.07482062464661883,
            -0.3420878662806633,
            -0.08646294372429786,
            -0.36443355711669234,
            -0.7110313380484024
        ],
        [
            0.07972516221406888,
            -0.05765470390745245,
            -0.8880963786280514,
            0.20899063550802713,
            -0.33147469586002987,
            -0.08894692364215331,
            0.4375326518914049,
            0.06810107271789226,
            0.5760784554945925,
            -0.6391472820186082,
            0.15206683217186961,
            -0.10522580430929777,
            -0.5292766757417701,
            -0.269171314633472,
            -0.19295092482279128,
            0.10460132396594786
        ],
        [
            -0.5804183649893926,
            0.38532092008457025,
            0.3147671392439972,
            -0.6385251358178241,
            0.7472172532221351,
            0.9222551700347343,
            0.5223018207783858,
            -0.07798996284695753,
            -0.4351806030036287,
            0.4281160506826878,
            -0.28571190084005654,
            0.5256582480836403,
            0.16138669679260115,
            0.3826734691555826,
            0.11995643749523627,
            0.31820347407333327
        ],
        [
            0.06050625433257069,
            0.8456483428535353,
            0.009138410946523205,
            0.26777876072219337,
            0.8404474679602376,
            -0.7249647353403803,
            -0.4798539428141593,
            0.4230806707739901,
            -0.466942308876574,
            0.808901107654048,
            -0.4558532187855192,
            -0.01484626909536491,
            0.7816651228277348,
            0.6567481335468066,
            0.8021921817302838,
            0.48823187916348565
        ],
        [
            -0.31066414747784316,
            0.9223904426077848,
            -0.227605992791713,
            0.40142483050573263,
            0.45357685375822615,
            -0.19817791791506081,
            0.31300784907773116,
            0.4121089716588688,
            0.20104715604857937,
            -0.5526545942290363,
            -0.06854261934499635,
            0.8045131669833119,
            -0.38016160332935606,
            -0.023156887486546044,
            -0.22525459496022657,
            0.8589085193288163
        ],
        [
            0.19148885891437534,
            0.2682164506261994,
            -0.23382225131864243,
            0.32688545260232904,
            -0.2910132755824351,
            0.07106836526319091,
            -0.2096104920594106,
            0.2622359353854608,
            0.351830541592991,
            -0.13933779124083015,
            0.19011669243119816,
            -0.5403857406018279,
            -0.7077380438837371,
            0.12526872436968042,
            0.0513788471187981,
            0.4125967748163484
        ],
        [
            0.9706053796791221,
            0.24282153065092402,
            -0.3399782979196579,
            0.5322997521825749,
            -0.4902791844642925,
            -0.12957543391057816,
            -0.05472173819648278,
            0.8943916575120892,
            -0.3332266939977628,
            -0.2419680754170114,
            -0.029988448873537847,
            -0.4413923827322999,
            0.6602713418308749,
            -0.6530708718311935,
            -0.5161336381539922,
            -0.258957895660707
        ]
    ],
    "layer_0_bias": [
        -0.0843770306800206,
        0.06906427592016837,
        0.03733180707965275,
        -0.08086992953386203,
        0.02400291940753646,
        -0.0007816072691724461,
        0.06407772269703121,
        0.10291313815841452,
        0.1384156166354084,
        -0.0354958131710692,
        -0.017359285360480436,
        0.026696954857436644,
        -0.13362916365728347,
        0.1893638415465029,
        -0.11668628103953464,
        -0.011010300041250278
    ],
    "layer_1_weights": [
        [
            -0.20427825583955128,
            0.6894220661320395,
            0.33321009149989983,
            0.14156351982531845,
            -0.48346087431600565,
            0.303848047727834,
            -0.3495464433663811,
            -0.29840207621618847,
            0.4245004138608491,
            0.08858130340039437,
            0.22581351152135815,
            0.03656856433915004,
            0.3409332072300224,
            -0.178369003244602,
            -0.3656600634097203,
            0.14356310944463313
        ],
        [
            -0.33763712744849694,
            -0.2362450513625016,
            -0.16475665218976648,
            0.19393911146231568,
            -0.09706223240496474,
            -0.4859491342704796,
            -0.23169006197318281,
            -0.7001682208462997,
            0.21784019882576697,
            -0.5288693032972565,
            -0.41051126527880855,
            0.05437882034603335,
            -0.13801015212091136,
            0.6603959994357873,
            -0.4509739470432986,
            0.051575687364731435
        ],
        [
            -0.0384717382315101,
            -0.39680053433226103,
            0.18287422592666924,
            -0.030604583406758704,
            0.264710765777432,
            0.3138911249666823,
            0.8004286364237201,
            0.5676553965345569,
            -0.07910453033875339,
            -0.08418961364499514,
            0.409066601798868,
            0.2366527097466785,
            0.21177321779052924,
            -0.6308506390509203,
            -0.01135222621587123,
            -0.27670205149975746
        ],
        [
            0.0655467168163664,
            0.0009532326530598549,
            0.3236662133611192,
            0.156884584121621,
            0.2822011504745269,
            -0.164296632598262,
            -0.333028167705336,
            -0.11021948641827693,
            -0.023688521291813727,
            0.1807804778750931,
            0.7982650663115919,
            0.001231943190246878,
            -0.32299334021532117,
            -0.0499937481308282,
            -0.1650158937655044,
            0.16413911531956235
        ],
        [
            -0.549663589978797,
            0.13280677804916544,
            0.056559176984901434,
            -0.08380633613957897,
            -0.2246411369050559,
            -0.05763021953529485,
            -0.4916243121580362,
            -0.09071885101160242,
            -0.14681573702274156,
            0.2933731491321922,
            -0.39320212640617774,
            0.22301822422097056,
            0.6613976382275476,
            -0.7501806596822891,
            0.15831815629981036,
            0.21485989264841007
        ],
        [
            -0.25226942597872665,
            -0.14072910540703049,
            -0.04710493211708578,
            -0.20502596223449873,
            -0.18419535666027242,
            -0.5917934808682925,
            0.44875257687929937,
            0.6482445826352105,
            -0.27625017568637683,
            -0.5046695164420137,
            0.07346320114483958,
            -0.32124482340087473,
            0.10579497389391623,
            -0.14926434738343322,
            0.24914404517236788,
            0.21223558726534994
        ],
        [
            -0.2666033930393443,
            -0.4818688203843497,
            -0.5587228647874732,
            0.23105521117943215,
            -0.3970906830217381,
            -0.1791866404704229,
            -0.22062536842381547,
            0.007834791128221838,
            -0.7034764059901979,
            0.09601108823258661,
            0.15680463366921799,
            0.08073879998335586,
            -0.07534266223853271,
            0.08563237103319692,
            0.14681808334925756,
            -0.9866825649660934
        ],
        [
            0.6053955348408715,
            0.15629408435921957,
            -0.23351734018547185,
            -0.12014463766506353,
            0.1739490665605029,
            -0.03867185131619717,
            -0.7176304175197913,
            0.9238450120638718,
            -0.04336421735527118,
            0.4201992099072919,
            -0.28716634637008054,
            0.46058567193140426,
            0.25190541930002924,
            0.30049237299216647,
            -0.3652429583098607,
            0.33216356606428393
        ],
        [
            0.20440588633936335,
            0.4720476414743596,
            -0.2223432636318687,
            -0.1634479195012926,
            0.8000813672569171,
            -0.37621063289758805,
            -0.09070347894302117,
            0.32946735023717977,
            0.010297955775202799,
            0.1989948699268,
            -0.1389653614507243,
            0.2684832647439046,
            -0.48186565974599627,
            0.5664136965715625,
            -0.041209199329132286,
            -0.3029203334654369
        ],
        [
            0.23917090876540278,
            -0.13043880434906624,
            -0.47257689911603806,
            -0.5957835973241647,
            0.23512969776365042,
            -0.02380210824879854,
            -0.008973941141983596,
            0.6338313082396761,
            -0.35180512793707963,
            -0.2376690351528656,
            -0.16400003861542076,
            -0.07543624526793127,
            0.09352811974406798,
            -0.14726871031158023,
            -0.02243052863673473,
            -0.11537965579238577
        ],
        [
            -0.2866740992229325,
            -0.2959881595397638,
            0.08950225853416073,
            -0.33717362324234557,
            -0.41155049623906514,
            -0.08538288191102934,
            -0.029869335938399987,
            1.078125498695916,
            -0.24397497126524667,
            0.2919163791202912,
            0.18518762595202984,
            -0.4389622613159962,
            0.30157797701625244,
            -0.4346934892968359,
            -0.936980252456617,
            0.01981032750543367
        ],
        [
            -0.6228019334855224,
            0.21812334474169603,
            -0.24234773173384597,
            0.8154554580250749,
            0.44263990131243813,
            -0.1529356372990396,
            -0.23833342741501362,
            -0.44639615077199846,
            -0.13710747636504755,
            -0.0655737041650514,
            -0.08082237335047968,
            0.18628131161134706,
            0.13707881074124473,
            0.19447830786863005,
            -0.2722275565705441,
            -0.5003125193997838
        ],
        [
            0.5407613562127913,
            -0.24522679606339803,
            -0.2291520546169273,
            -0.2526675694220066,
            -0.6664056022837802,
            -0.16661918337519988,
            -0.1746384133660458,
            0.49315988324726867,
            0.34845074020485606,
            0.008686271489575719,
            0.28103953774515245,
            -0.01265409913954149,
            0.1370338919920915,
            0.017021233039847802,
            -0.06816367172699311,
            -0.19038167822317212
        ],
        [
            -0.12737709631688832,
            -0.38907474215519566,
            0.096869595563572,
            -0.15383710403306683,
            0.3627402932909448,
            -0.0921102102473383,
            0.0315763904416624,
            0.2039986265816758,
            0.23049988243433994,
            -0.5661195967559616,
            -0.07325097804843736,
            0.4026209050961566,
            -0.6303167893015753,
            0.18113816253689088,
            -0.7974422907348715,
            -0.37230901087497614
        ],
        [
            0.0141245236142895,
            -0.5861332028139835,
            -0.3496251843637286,
            -0.4706282810802701,
            0.6228513304112409,
            0.059327354460052835,
            0.20055630116090795,
            -0.08015350847007073,
            -0.10633396634914181,
            -0.5738391861928646,
            -0.10058319371663561,
            -0.24228687518431258,
            0.31781128863638847,
            0.4087524713405815,
            0.5192838840754809,
            0.2802616804781323
        ],
        [
            -0.27158441276244083,
            -0.39252741379957357,
            0.27282490691992395,
            0.43493696180384384,
            -0.5506687709891401,
            0.12568179311873498,
            0.2817880302392698,
            -0.05887549835137374,
            -0.10871826332966122,
            -0.2694138515525756,
            -0.5168131874122731,
            0.47575377327822505,
            -0.12371942597295942,
            0.058849686940689226,
            0.6210559675442268,
            0.2500444979104588
        ]
    ],
    "layer_1_bias": [
        -0.07714645001917801,
        0.06060578554333058,
        -0.008888787937000304,
        -0.0006593680814518195,
        0.08987246768708103,
        0.03214833640117866,
        0.001186414338968478,
        0.008293419032915281,
        -0.011697563235540541,
        0.07395426503904821,
        -0.032824798179939094,
        0.15063377459748423,
        0.05837351930324797,
        0.03984296839907099,
        0.013211397088416028,
        -0.15676260314950635
    ],
    "layer_2_weights": [
        [
            0.13320951962319788,
            0.046865616638871066,
            0.5335743151446943,
            0.5932747576411352,
            0.400802490176198,
            0.20021609416547437,
            -0.7406169666272666,
            0.03874079487602818,
            -0.04588332338855337,
            0.033252848451119504,
            0.32599605136269355,
            -0.996148590985204,
            -0.1980603561483251,
            0.13245059802893758,
            -0.19106218467318678,
            -0.4621490752686327
        ],
        [
            0.3297889643201027,
            0.114941287651577,
            -0.34381484384895894,
            0.11111776639237975,
            0.3215684005195789,
            -0.001320978953793784,
            0.28039315982115026,
            0.018274020840552917,
            -0.13958595938481813,
            -0.4115999125599874,
            -0.04875708069393283,
            0.09204157304524158,
            0.3303558291996285,
            -0.0428081473323148,
            0.14273148906202324,
            -0.31458807389885113
        ],
        [
            -0.2767675435743519,
            -0.03846691126699886,
            -0.37281418329969535,
            0.2887594216740727,
            0.17286509371828504,
            0.09930363137029538,
            0.11932762784792186,
            0.7127321360583815,
            -0.16576852338342263,
            -0.77836438445493,
            0.06931241256419564,
            -0.014960344344676127,
            -0.18221424968580127,
            -0.3465117858766257,
            -0.1548419363785392,
            0.07494651432680045
        ],
        [
            -0.1148362895500026,
            0.7579484129354169,
            -0.3356540551803239,
            -0.2564457342908664,
            -0.8152438181659178,
            0.17401919779341385,
            -0.7119987970121657,
            -0.20019229699576765,
            -0.09746425218054518,
            -0.2850701291926507,
            0.6922982075026508,
            0.6603203181610504,
            0.4029836954735345,
            -0.31549863696243924,
            0.7507504618227204,
            0.10098732768376979
        ],
        [
            0.3012758387711174,
            0.32626918733613347,
            -0.3212928539723827,
            -0.13850878566351013,
            0.26542804642149603,
            -0.941198504905939,
            0.5513957270827204,
            0.18552831798253042,
            -0.016158790254967633,
            0.051219019516750085,
            -0.3666057204632983,
            -0.0041862775331851995,
            0.4021748138027377,
            0.4186816580412012,
            1.0282928667624314,
            -0.11337771348158347
        ],
        [
            -0.23301098486433133,
            -0.1816940197841893,
            -0.3599321567737826,
            -0.029925199549872054,
            0.14100782155659136,
            -0.016620178919148226,
            0.38744439752806925,
            -0.08442859627875862,
            -0.12284235625471238,
            -0.20597626519951093,
            -0.5777432338426202,
            -0.5528137161397588,
            -0.41366763450719257,
            0.46012430735034227,
            0.3102105242541093,
            0.49578376452975687
        ],
        [
            -0.4713083981003194,
            -0.7155562140966774,
            -0.23336514996592436,
            0.04675697944719963,
            0.2225839547453989,
            0.34171672451848395,
            0.10499619700073475,
            0.6061250725536652,
            -0.07870299326460324,
            -0.32341826991307104,
            -0.5948792159656395,
            -0.3301735255193201,
            0.10863633398046939,
            -0.3192113226990187,
            0.2927632904541518,
            0.5685156862475292
        ],
        [
            -0.8348006410250125,
            0.345346146329771,
            -0.7925288965356709,
            0.08467594016624445,
            0.7967303518337512,
            -0.08534557178600066,
            -0.4459612306438837,
            -0.24289060093584444,
            -0.09228038308393062,
            -0.059928407658157476,
            -0.13269001345872886,
            -0.13295930567941078,
            0.21094276141345672,
            -0.44721721970758366,
            -0.266196742682555,
            0.9732793953553537
        ],
        [
            -0.13181352206412564,
            -0.16044460150894996,
            0.38050439130284375,
            -0.9108507830298174,
            0.46486776590945206,
            -0.2263934779036246,
            0.05705958641722991,
            0.02829875349242157,
            0.3336606464447936,
            -0.09894357281542626,
            -0.24475928867996383,
            0.45288593407602096,
            -0.8303189698234171,
            0.0387369146670105,
            -0.464336011080837,
            -0.2404249166722224
        ],
        [
            0.7909390312396415,
            0.011994065383740052,
            0.06896515555683523,
            -0.6326454336953419,
            -0.1948640329796677,
            0.043660867884417046,
            0.12418903491380323,
            0.20754268631802014,
            0.0030504229160051455,
            0.17309890405542924,
            0.11447755520748604,
            -0.6566125446315488,
            0.04304886437351268,
            0.2715155276263977,
            0.07790320477291662,
            -0.0803040788101404
        ],
        [
            -0.2839498647695883,
            -0.397533909289665,
            -0.04636813722788019,
            0.3804958816656827,
            -0.603311017020711,
            -0.25284331556961914,
            -0.403654512800152,
            0.2606469267540059,
            -0.19579951062322495,
            -0.16648568689853283,
            -0.086447928692318,
            0.12082820518640612,
            -0.11491686205916776,
            -1.0788117959142798,
            0.0841397186096062,
            0.27283817932933035
        ],
        [
            0.0124378513559016,
            -0.47841751781010217,
            0.1360742588627879,
            0.16585591528043656,
            -0.016810997151195807,
            -0.03806355737861867,
            -0.3195495664947824,
            -0.08471904137347762,
            -0.5480274914128427,
            0.09469279884588926,
            -0.2900530892410727,
            0.32048656916429874,
            -0.5196947966511145,
            -0.19805078981708224,
            0.2633525132960057,
            -0.6490682775556509
        ],
        [
            0.25455963479035437,
            -0.07234086376642279,
            -0.6175209948155336,
            -0.48228795659395535,
            0.4574718019724292,
            0.2587041197469239,
            -0.04833937424052626,
            0.1098525659787012,
            0.07921020931418099,
            0.03841923094982189,
            0.3693486512612251,
            -0.5241071311481698,
            0.31116893681223895,
            -0.1280333005568106,
            -0.37842364047289834,
            0.036977514486556354
        ],
        [
            -0.13646843535106673,
            -0.44122106094039937,
            0.07330378065141203,
            0.6184594334784116,
            -0.005644963592319511,
            0.005463782873370768,
            -0.23720114330494252,
            -0.04336406869494594,
            0.16502497251126455,
            -0.13820151229287594,
            -0.152720652808896,
            0.29252998590062024,
            -0.3109913512709249,
            0.10624185161294017,
            0.5865414659285542,
            0.41702192805711213
        ],
        [
            -0.0326282976813222,
            0.4820961693439531,
            0.3657191226287442,
            -0.3522259381472528,
            -0.4357354553878304,
            -0.10524768199369532,
            0.36373909575723506,
            -0.02567688582906773,
            -0.21236451609538598,
            0.5517109891179887,
            0.10399188674924985,
            -0.8198808723734965,
            0.11032080093551484,
            0.18386212252774017,
            0.08749770555371293,
            0.15371118437777725
        ],
        [
            0.0019579037720991767,
            -0.4571714188256043,
            -0.13143570257345832,
            -0.3357305279803814,
            -0.2441603338101615,
            -0.45832939113757043,
            0.1580805800722467,
            0.026926787523024697,
            -0.1582405617083639,
            -0.24017631159083766,
            -0.04387627615618102,
            0.3725021541683864,
            -0.7012790376305453,
            0.1649541730620605,
            -0.17240687568754237,
            -0.6349006306424045
        ]
    ],
    "layer_2_bias": [
        0.13328173425182163,
        -0.004420259197288405,
        0.006417595711452229,
        0.0061682921914851425,
        0.11312676024736171,
        -0.05627650350089811,
        0.004588883995471173,
        -0.03712344818901601,
        0.0002231521453662265,
        0.0012286105183504973,
        -0.046470287892507456,
        0.11441219236779877,
        0.06543045904919627,
        -0.005196912380377747,
        0.049443416821792624,
        0.056276791732178554
    ],
    "layer_3_weights": [
        [
            -0.8038766165622483
        ],
        [
            -0.20854206649095566
        ],
        [
            0.07746451672461496
        ],
        [
            0.17938869696375445
        ],
        [
            -0.7965286603944683
        ],
        [
            0.3377687387500073
        ],
        [
            0.4888409651748355
        ],
        [
            0.048525980527738544
        ],
        [
            -0.20285891967836928
        ],
        [
            0.3818326101628056
        ],
        [
            0.274386836874209
        ],
        [
            0.7883791511012544
        ],
        [
            -0.3008923080069695
        ],
        [
            -0.97617409775408
        ],
        [
            1.2137364404872548
        ],
        [
            -0.9848213297829448
        ]
    ],
    "layer_3_bias": [
        -0.2618784667102879
    ]
}